svm_type c_svc
kernel_type rbf
gamma 0.037037
nr_class 2
total_sv 11
rho 0.373391
label 1 -1
nr_sv 4 7
SV
1 1:0.6259 2:-0.380203 3:0.346146 4:0.637558 5:-0.10051 6:-0.430374 7:0.222107 8:0.084641 9:-1.060959 10:1.787659 11:-0.042389 12:-2.363495 13:2.602112 14:0.390228 15:-1.443787 16:1.387177 17:-0.163055 18:-0.621506 19:0.700928 20:-0.104279 21:-0.622147 22:0.460205 23:-0.216934 24:-0.14502 25:0.316711 26:-0.149948 27:0.060181 
1 1:0.734482 2:0.004501 3:0.278854 4:0.332718 5:0.043655 6:-0.176651 7:0.1362 8:0.104752 9:-0.479858 10:0.59343 11:0.080002 12:-1.593369 13:1.770218 14:0.305222 15:-1.573441 16:2.044449 17:0.134033 18:-1.053864 19:1.884827 20:-0.487457 21:-0.382919 22:1.411591 23:-0.519043 24:-0.077377 25:0.457108 26:-0.027939 27:-0.00473 
1 1:0.936813 2:-0.238983 3:0.087189 4:0.574005 5:-0.059982 6:-0.132492 7:1.192413 8:0.171967 9:-1.809326 10:1.321075 11:0.019455 12:-2.128113 13:1.628891 14:0.050003 15:-2.034515 16:1.581604 17:0.133972 18:-1.171921 19:1.126556 20:-0.064697 21:-0.50061 22:0.477432 23:-0.326355 24:-0.103195 25:0.003891 26:-0.293121 27:0.081772 
1 1:-0.544937 2:0.175476 3:-0.652451 4:-1.334015 5:0.019623 6:0.27034 7:-0.670563 8:0.07103 9:0.584763 10:-1.892639 11:0.27774 12:2.311935 13:-2.638321 14:0.495483 15:1.824875 16:-1.665405 17:0.024353 18:0.956741 19:-0.615997 20:-0.022583 21:0.323517 22:-0.220398 23:-0.258621 24:0.158524 25:-0.212952 26:-0.398285 27:0.037781 
-0.5532655795944872 1:1.054474 2:-0.018021 3:-0.23175 4:1.072708 5:-0.037598 6:-0.226532 7:1.108353 8:-0.078217 9:-0.330704 10:1.057816 11:-0.186523 12:-0.338684 13:1.038223 14:-0.195007 15:-0.349274 16:1.072021 17:-0.195374 18:-0.500107 19:0.849564 20:-0.173126 21:-0.500671 22:0.963593 23:-0.207764 24:-0.409546 25:1.076111 26:-0.329681 27:-0.362076 
-0.8143762468233883 1:0.208878 2:-0.641571 3:-0.459061 4:0.374313 5:-0.585129 6:-0.860565 7:0.70108 8:-0.508362 9:-0.708679 10:1.314438 11:-0.557892 12:-0.763931 13:0.97139 14:-0.426895 15:-0.383484 16:0.924057 17:-0.308075 18:-0.460968 19:1.089294 20:-0.049683 21:0.043045 22:0.923904 23:-0.108856 24:0.208115 25:0.966171 26:-0.157593 27:0.344299 
-0.876315484191186 1:0.751251 2:-0.14241 3:-0.339005 4:0.827637 5:-0.215179 6:-0.400894 7:0.562088 8:-0.078369 9:-0.432495 10:0.882233 11:0.047546 12:-0.197662 13:1.196472 14:0.079834 15:-0.383774 16:1.302902 17:0.102493 18:-0.412781 19:1.281448 20:0.229767 21:-0.110672 22:1.283005 23:0.154953 24:0.003098 25:1.371811 26:0.072021 27:0.12709 
-0.2201844176450297 1:1.459244 2:0.388367 3:0.453644 4:1.549911 5:0.396545 6:0.394592 7:1.588486 8:0.376358 9:0.387756 10:1.4664 11:0.403702 12:0.624939 13:1.423935 14:0.435562 15:0.568283 16:1.204834 17:0.314011 18:0.638351 19:0.854507 20:0.040619 21:0.701889 22:0.936813 23:-0.238983 24:0.087189 25:0.574005 26:-0.059982 27:-0.132492 
-0.4090404072200556 1:-0.918884 2:0.52684 3:-1.20575 4:-1.218018 5:0.403992 6:-0.99144 7:-1.195389 8:0.143631 9:-0.783615 10:-0.932098 11:0.288651 12:-1.01976 13:-0.390106 14:0.138657 15:-1.248459 16:-0.544937 17:0.175476 18:-0.652451 19:-1.334015 20:0.019623 21:0.27034 22:-0.670563 23:0.07103 24:0.584763 25:-1.892639 26:0.27774 27:2.311935 
-0.6016662125441332 1:-1.072525 2:0.001602 3:-0.013885 4:-1.050873 5:0.008896 6:-0.037598 7:-1.115891 8:-0.019531 9:0.027893 10:-1.134171 11:-0.0103 12:0.037033 13:-1.188507 14:0.049774 15:0.099518 16:-1.099655 17:0.088165 18:-0.035614 19:-0.884949 20:0.115036 21:-0.306229 22:-0.931625 23:0.164658 24:-0.26268 25:-1.100983 26:0.311539 27:-0.43306 
-0.5251516519817199 1:0.520233 2:-0.285995 3:-0.734344 4:0.038467 5:-0.432907 6:-0.454269 7:0.129776 8:-0.343094 9:-1.211319 10:0.029663 11:-0.357407 12:-1.012955 13:0.066681 14:-0.535904 15:-1.139404 16:-0.190201 17:-0.378784 18:-1.116943 19:-0.058853 20:-0.368347 21:-1.292984 22:0.066727 23:-0.418259 24:-1.076035 25:-0.064468 26:-0.352005 27:-1.241196 
